{
  "NumOfInputNeurons": 75,
  "NumOfOutputNeurons": 1,
  "NumOfHiddenLayers": 2,
  "NumOfHiddenNeuronsPerLayer": [
    50,
    25
  ],
  "Weights": [
    {
      "Rows": 50,
      "Coloumns": 75,
      "Values": [
        [
          -0.43136067022425806,
          -0.6027629407919706,
          -0.18780084384432527,
          -0.4148700081645704,
          -0.9298368895543923,
          0.23346111150266546,
          0.9058106824380361,
          -0.16992974053153942,
          -0.32857010786617735,
          0.35305518520696466,
          -0.24433817361020482,
          0.6899365722252832,
          -0.7829553412865398,
          0.8609522984127614,
          -0.5208617719788052,
          0.6047478530832506,
          0.0010742528889160496,
          -0.7310986127134687,
          -0.29342296444325916,
          0.3488687665380351,
          -1.353000528545071,
          -0.36573468498330186,
          -0.6469862647477495,
          0.8873793310932157,
          -0.7004370218222012,
          -0.7398827305686209,
          0.48457677155046663,
          0.38708851397481325,
          -0.23487591216017606,
          -0.28151224033347955,
          0.8358652814387522,
          0.4703742942533413,
          0.7979802558803466,
          0.7010673149679278,
          -0.17764871248755906,
          0.12405124354088182,
          -0.8981910004199947,
          0.23134340958836716,
          -0.16765015641411596,
          0.2225083812467954,
          0.3734394158703493,
          -0.4878687201417957,
          -0.8473100147178823,
          0.7403566655085503,
          0.18353914181915387,
          0.5600914752592017,
          -0.15009249212172993,
          0.2460443920688236,
          0.7850630239553973,
          -0.15869876030261487,
          0.0225367525382405,
          0.5360609463661934,
          0.4358414140002576,
          0.7348668212422851,
          -0.20489969021946441,
          0.6976779430423793,
          -0.4078389241317974,
          0.06234711950665472,
          -0.546756165448123,
          -0.39164668108561235,
          0.10742493030508271,
          0.7651717333900838,
          0.22527783727504724,
          0.45753812635511765,
          0.8811122352530689,
          0.41175288324556697,
          -0.7946665071695573,
          -0.6057328533740476,
          -0.07598363174089481,
          -0.9001321716141897,
          0.8780841569295741,
          0.771934644626147,
          -0.19894262846770377,
          -0.9153117560618482,
          -0.30839684253657396
        ],
        [
          -0.25104704246340637,
          -0.879098559092693,
          -0.7728908047034594,
          -0.8728408869852438,
          -0.7527808434397564,
          -0.22734826690395193,
          0.5522294722556627,
          0.9410040321082317,
          -0.8328835188805543,
          -0.7075059402611737,
          0.48108303900806293,
          -0.7998499582940188,
          -0.9764269725034951,
          -0.9252719114463268,
          -0.4247563462904024,
          -0.6289488614935554,
          -0.7644763576437938,
          0.8613823622903567,
          0.41742155845171314,
          0.12095679885089314,
          0.7847461654143862,
          0.3655122566679707,
          1.034038823060168,
          -0.04374311444568173,
          -0.9619519259936749,
          0.061332889917694366,
          0.08834086122655771,
          0.14074347639448748,
          -0.5720920795800596,
          0.8912445844825561,
          0.16338778824271039,
          -0.35096491206153546,
          0.05388444007638293,
          0.6203572758981665,
          -0.49490513708626427,
          0.016985709727529438,
          -0.8760785035940888,
          -0.7009572933969914,
          0.5109491476102721,
          -0.42234904734084583,
          0.21621097898757408,
          0.3574949483294201,
          0.12838961715036473,
          -0.1302020328955309,
          -0.08556839647575476,
          -0.4877735549131259,
          -0.6254817261287573,
          -0.8786432183265247,
          0.4257470833688459,
          -0.9896959738595239,
          -0.03575634448369103,
          -0.18115035456993223,
          -0.4447035304426872,
          -0.8364922504682455,
          -0.25572240575745114,
          0.4968606406432867,
          0.5128564743199222,
          0.6202840456261158,
          0.03938313038925001,
          -0.6963994263766526,
          0.9177466836750714,
          0.5784138605198852,
          -0.19043292751029606,
          -0.8057033270326883,
          0.7504950998835493,
          -0.47568125666326677,
          -0.8421007923727002,
          -0.9091973109304736,
          0.9558609802161918,
          -0.3565675897719628,
          0.48365167489180827,
          -1.040496535024258,
          0.996678731855202,
          -0.9769688604348392,
          0.3526526131278446
        ],
        [
          -0.8077719240310659,
          -0.5687355441783277,
          0.8427926877736807,
          0.13751860852597453,
          0.4522425020460499,
          -0.9464296901034639,
          -0.04365859604819091,
          0.34883678372032473,
          0.9930701039871148,
          0.4178377849607271,
          0.8103790109158595,
          -0.9083846144418427,
          -0.21828952874524976,
          -0.052439369604208724,
          0.5191082459979581,
          0.6984116041059756,
          -0.560610699799653,
          1.0034174997190715,
          0.8840756171437474,
          0.5274902662875376,
          0.3286988544342944,
          -0.7130238997146781,
          0.5131403481822726,
          -0.39400763123066496,
          0.09595741551065373,
          0.12113550978580734,
          0.8500569254515875,
          -0.23252343710733214,
          -0.468913299234235,
          -0.5846016752610389,
          -0.3507181732772473,
          0.9872728216057628,
          0.3627575981451844,
          0.5070502333316922,
          -0.18911280614069784,
          1.0356596248728152,
          -0.06411236506213469,
          0.5515980546895707,
          0.2121077334759153,
          -0.09412094859706821,
          -0.4215469249508318,
          -0.5981248975528666,
          -0.17383352889600445,
          -0.5872529961846751,
          0.1333572235896477,
          0.5459702664318822,
          -0.4432927437147214,
          -0.02962252672956156,
          -0.8901695322065715,
          -0.7235431894695301,
          -0.45528049923411595,
          0.6252329877248497,
          -0.6033145300829554,
          0.049007691117823576,
          -0.45535481150621093,
          -0.08377521398353638,
          0.1552813791762468,
          0.15174383039316908,
          -0.42144460032028563,
          0.909369786016996,
          0.16488894859454434,
          0.28263606765813437,
          0.6168072889713346,
          -0.6833006295824164,
          -0.3917542323846707,
          0.19389718980753776,
          0.4791483596534247,
          0.2974054692714114,
          0.6850519109558912,
          -0.8629897264020335,
          -0.625002376715158,
          0.5610297081251479,
          0.2364799807503084,
          0.5326865997536028,
          0.35281125126073354
        ],
        [
          -0.012683351206243199,
          0.7428512966948739,
          0.6126741156230355,
          -0.9495634744460935,
          -0.4861706786725064,
          0.7470590075970192,
          -0.3024348245509052,
          -0.5738154994074676,
          0.8354288659336779,
          -0.13085999626978584,
          -0.9556183137118102,
          0.8300785264484756,
          0.4432497684942128,
          0.24623038149861326,
          0.12959653728810255,
          -0.33536548094181395,
          0.03191461407001883,
          -0.6681000528404771,
          0.9997722087530692,
          0.18970576370520442,
          -0.7024797868463803,
          0.6812299564577982,
          -0.4474665273703513,
          -0.3989409774243615,
          -0.12474864781342987,
          -0.4432545911482979,
          0.379278618350571,
          0.7415408779762691,
          0.18117246787404503,
          0.055950525048079666,
          -0.6575780274331302,
          -0.6964208659158007,
          -0.5126409496049145,
          0.21431342391867547,
          -0.7966560174197399,
          -0.3597979312015004,
          -0.12496542328289317,
          -0.24087538708478418,
          -0.5408732172496258,
          0.46970293775396277,
          0.3258280250882093,
          -0.4479347554996598,
          0.09254727703204595,
          0.6540916649798469,
          -0.6066712843375677,
          0.049156879690857025,
          0.2456824089960872,
          0.33424516448875924,
          -0.4154947953574742,
          -0.6852177717785084,
          0.5713001304729989,
          -0.12935295650364376,
          -0.1287818699033494,
          0.33403780216245293,
          -0.47445935832225317,
          0.8481812977083657,
          0.8213361787467255,
          -0.7091058268776527,
          0.037314211840305145,
          0.8358914540215531,
          -0.18909206652235522,
          -0.12487258768602638,
          -0.21831773970032842,
          0.3173646620198949,
          -0.9939635164693719,
          -0.8641411630153195,
          -0.7236215100074633,
          0.50009132711935,
          -0.06442734833518982,
          0.7541896585432548,
          -0.6360356243230996,
          -0.027198065157123086,
          -0.6215667365907519,
          0.8068928682380192,
          0.3626743832425081
        ],
        [
          0.7486448359428133,
          -0.6946615061202248,
          -0.2757205705913921,
          -0.5432382623005194,
          0.1464012391706389,
          0.9421820516777908,
          0.4217462130137233,
          0.771321633855204,
          0.4137379753659274,
          0.06341599979729536,
          -0.5014126897742615,
          -0.4206587950048313,
          -0.4982962485589906,
          0.1777407757102508,
          0.677515920673915,
          -0.5311640105676173,
          -0.1645641863264177,
          0.9323655539097349,
          -0.053664639960940175,
          0.05000157425897456,
          0.7543216996734361,
          -0.31877965005538034,
          -0.4223586718809053,
          0.438778113557277,
          -0.8540851894059247,
          -0.39876645277992173,
          -0.0013420264394583548,
          0.867810634658718,
          0.30014983801356365,
          -0.46413781877157356,
          0.9719047101737974,
          -0.12835181185813793,
          1.0203907448054392,
          0.957014478180752,
          -0.748105160376529,
          0.6491912695986262,
          -0.7923199887177685,
          -0.5555863238486842,
          0.7457726681064287,
          -0.5711429687058043,
          -0.10079442964874327,
          0.19594982303765604,
          -0.7007848392038767,
          -0.41867567628135666,
          -0.49991465995877327,
          0.1587406348930161,
          -0.17877766295964861,
          0.37263121531507315,
          -0.3045854428281376,
          0.29565906131791975,
          -0.7714871387818647,
          0.04867284375886882,
          0.42189494935211336,
          0.4497599059887012,
          -0.3033860038920827,
          -0.2632398172423617,
          0.06571163140056235,
          0.2772644871850978,
          -0.46098019328104367,
          -0.15479083612608124,
          0.5451100795391244,
          -0.4575114441486918,
          -0.7224640348085756,
          0.5234470116424643,
          -0.24056041976264142,
          -0.8410930524918241,
          -0.9143120474620803,
          -0.28273123518605425,
          0.7067033360195825,
          0.8276906875926615,
          -0.6460611353037367,
          0.1707673562830177,
          0.35526503343143645,
          -0.5585706714007534,
          -0.9938398403857319
        ],
        [
          0.8047070360273554,
          0.6203181949752131,
          -0.04672302163091535,
          0.15127415066395522,
          -0.4173364512482678,
          0.8495382929320923,
          -0.21216725224252642,
          -0.20830740647809387,
          -0.28335730436208273,
          0.9552231058296906,
          0.703060306829522,
          0.607794023684729,
          0.6099131161028305,
          0.23001425450356297,
          0.20971405986349603,
          -0.6407315005310505,
          0.539987507913156,
          0.39957392973755823,
          0.9621309394141417,
          -0.9477800912424815,
          -1.0116839510184823,
          0.8068782106757602,
          0.8422412110080715,
          -0.8093284986517535,
          0.9997465477544103,
          -0.7776898280657512,
          0.48552382551180984,
          0.40917704999269616,
          0.807021597771559,
          -0.11077755128459321,
          -0.43269967903126316,
          0.9899792090731951,
          0.40776213613620405,
          -0.6129957747519725,
          0.10956170807988888,
          -0.7815830900284821,
          -0.29158572839716196,
          0.8826734799103564,
          -0.6140172700528588,
          -1.0231965986365132,
          -0.08693587207933035,
          0.3630088694763627,
          -0.17495881716483508,
          0.19379374382670322,
          -0.28465289447731035,
          0.9287182513900198,
          0.9670530935255998,
          0.6102148874709519,
          0.48265185442755554,
          -0.3233446880628126,
          0.7513298679751732,
          -0.24279880703781206,
          -0.24773257103210092,
          0.8277942184940554,
          -0.192698756221761,
          -0.21105329245608254,
          0.24420607532696434,
          -0.9879435459397912,
          0.07001658146668044,
          -0.5372154254670916,
          0.8469082167571793,
          0.8906068404138274,
          -0.671902382918339,
          -0.1782000354823527,
          -1.0562750068387432,
          0.9421161569035138,
          -1.1198560463124634,
          -0.43218342200543364,
          0.06711663039391125,
          -0.056497459304596376,
          -0.3727864981102151,
          0.7144626877103194,
          -0.2994293421058898,
          -0.3017247932120024,
          -0.1427805189662043
        ],
        [
          0.682211518785107,
          0.8382298494803049,
          -0.774543488640886,
          0.5567922464109053,
          0.7867390261600669,
          -0.5399135697997358,
          -0.01258442341378263,
          -0.9795772176257036,
          0.3545567280682387,
          -0.8296954258762717,
          -0.4183045648036432,
          -0.8535267158589166,
          0.5069927130695344,
          0.2567068787147143,
          0.019593579840745612,
          0.3928595288598641,
          0.09137191192036509,
          -0.17607740702478553,
          -0.8857189995093644,
          -0.3766324408581925,
          -0.8440077127627714,
          -0.8700586824036962,
          0.008651639034761516,
          -0.749664161198558,
          0.15478130497492337,
          0.3749206495739775,
          0.6732551342075102,
          -0.7771331483885926,
          0.47093379816630576,
          -0.5945083575957357,
          0.6525839781042211,
          -0.37836520880942937,
          -0.7099377477097866,
          -0.581367661932861,
          0.34039042401051267,
          -0.26993872520076784,
          -0.4371974959174025,
          0.04852909509130576,
          -0.6459411487350677,
          -0.4642372221127501,
          -0.7008476014851199,
          -0.7904093033404553,
          0.05115159741209889,
          0.9679745866465321,
          0.42150676544187027,
          -0.5218798632834156,
          -0.0914792407080669,
          -0.5396899488326787,
          0.3905733860823002,
          0.8092798870135929,
          0.3859699256621365,
          0.9470855024162411,
          -0.826496996024362,
          -0.7848696970880101,
          0.3604173356773351,
          0.96881953268332,
          -0.7698942053032161,
          -0.03446347448973497,
          -0.9502074555173168,
          0.32466671469998076,
          0.5616035341270487,
          0.5356563648966385,
          0.6906821192279144,
          0.18020527823694854,
          -0.6827125382584578,
          0.8190729599704003,
          0.878226909248319,
          -0.11051583793129141,
          -0.6089200592317217,
          0.9298247759715168,
          0.9669729693814264,
          0.7623308342132199,
          0.3708774067313101,
          -0.3688779326087283,
          0.32165238097533866
        ],
        [
          0.23128599644392,
          0.7993911925112666,
          1.0436026501435998,
          -0.824895931190017,
          0.9192454491337805,
          -0.40494993087240083,
          -0.046458203324934555,
          0.046447304087933274,
          -0.13842028665905173,
          -0.9482498923039147,
          -0.2981151718241156,
          -0.16807500143650866,
          0.3180742054637191,
          -0.6739997192170866,
          -0.284365539124968,
          -0.7992368372991027,
          -0.6756090283158231,
          0.10385018894121556,
          0.9447805483156753,
          0.7333152167747699,
          -0.16562397048744065,
          -0.9717513121166765,
          -0.040842708017684526,
          0.6834152500454418,
          -0.6536142784930559,
          -0.4499465297601493,
          0.007913987628427946,
          0.12737122187173977,
          -0.1245235432054546,
          -0.17055937169955904,
          -0.018490301357254157,
          -0.3423933803534333,
          -0.3542913773171952,
          0.04200509428769483,
          -0.4808033870847317,
          -0.861798559958434,
          0.7773406540513633,
          0.8103908973049059,
          0.21530048445828692,
          -0.018356922524284516,
          -0.09599957806105017,
          -0.9007640606265532,
          -0.30524318616493806,
          -0.022410361706303526,
          -0.0706326223464401,
          0.4737323607537398,
          0.4167477620335207,
          0.6028647065248527,
          0.5685355225952633,
          1.029586432534438,
          -0.7228432085830641,
          0.4156896322432644,
          -0.8766969629740604,
          0.016571173802703676,
          -0.440393860440226,
          -0.8167922385491782,
          -0.9057749698814507,
          0.6691817554640472,
          -0.31789792811351436,
          0.743081972061589,
          0.7711263335763072,
          -0.5832706081189517,
          -0.6987323704749779,
          -0.2681483296598728,
          0.7129904605721262,
          -0.4222384808891863,
          -0.8917241018528168,
          0.6603879586823629,
          0.609992626109946,
          0.7435295030023594,
          0.8130668764502144,
          0.710724534805725,
          -0.07322322386393551,
          -0.6333203774022125,
          0.06612943733198051
        ],
        [
          -0.867150555725303,
          0.46190417940906614,
          -0.5927519217067347,
          0.9166923514739364,
          -0.6144957113495093,
          0.914853815904641,
          -0.6246340004751318,
          0.6166097747812895,
          -0.008648379675418205,
          -0.37743589931335414,
          0.4581907955622784,
          0.2666014911360097,
          -0.527961655035178,
          -1.1278658618305077,
          0.06576242411021904,
          -0.1720592063746995,
          -0.2567360069202808,
          -0.24621842666934102,
          0.4591361502694751,
          0.4851376127118619,
          -0.9029993090189463,
          -0.11553778687117715,
          0.3993517912041329,
          0.1014584785140868,
          -0.3424961950293738,
          0.8145462934314485,
          0.50617949656443,
          0.27804074701298936,
          -0.8949909054488243,
          -0.25691139944137364,
          0.2519290275125785,
          0.832343183606608,
          0.7682670928837837,
          -0.17909692941064867,
          -0.8058623966303475,
          0.6653403502735022,
          0.4350870857413236,
          0.46915928318729394,
          -0.17569553026205798,
          -0.7543062980310693,
          -0.07426888704050283,
          0.09026042946891519,
          0.4607322834240823,
          0.8544077433711028,
          -0.5079227946473255,
          0.33993777000805603,
          -0.7989525610423582,
          -0.6787778843608048,
          -0.8045997517602692,
          -0.2190125997012121,
          0.34783194772380766,
          0.6214389663670152,
          -0.5524172304847994,
          0.6521099106304278,
          0.2413090970884606,
          0.7726865521445602,
          0.6923129206336076,
          0.38090135936887654,
          -0.3929583162861263,
          -0.7219549260422994,
          -0.37563731642614634,
          0.9128475503343755,
          0.7722806864539701,
          -0.049174228503407344,
          0.09449838053743362,
          0.7173514584661723,
          -0.43201523138002546,
          0.0031401317611438294,
          0.25622648874597775,
          0.39064397397999917,
          -0.38044135233752474,
          0.29466853927058173,
          -0.9565004183485981,
          -0.6504658873753594,
          0.20592132438951438
        ],
        [
          0.6651910964069834,
          0.5520793815684311,
          -0.19929264857250484,
          0.5161417910494341,
          -0.6600363081138916,
          0.19982774687648663,
          -0.5137841120846969,
          -0.821306874995988,
          1.0186282122512362,
          0.25798113227106834,
          0.36821854273799753,
          0.7794138830053154,
          0.6414951092957705,
          -0.7630125709137894,
          0.41270037178996644,
          0.3415935637022042,
          -0.8971373423582293,
          0.23083157257002362,
          -0.5796853108231375,
          -0.9463231478815972,
          -0.8481406389797215,
          -0.10611170831911743,
          -0.3337671838388124,
          0.4250798652353127,
          0.23817878936021128,
          -0.7482103815706793,
          0.11274834381567174,
          0.525707851174372,
          -0.8131730186544397,
          0.4404816043914175,
          0.4044449325138677,
          -0.6245109434901202,
          0.40708655502259705,
          -0.8179607307483179,
          -0.40242832341786905,
          -0.4588338216517691,
          0.9128681993706282,
          0.6797392485142191,
          0.9779295688595191,
          0.20081485668749055,
          0.11323243545726988,
          0.05437911509348257,
          -0.4815904898455361,
          -0.5126278551298025,
          -0.6639745044782819,
          -0.12009070417034895,
          -0.8738977668808212,
          0.13413856512827138,
          0.8257748694772091,
          0.13944035545890646,
          0.29312313701336645,
          0.10199808469888261,
          0.599041864317686,
          0.9611440905601394,
          -0.863758000773323,
          -0.521706830924854,
          0.23426906102049339,
          -0.4983045077397863,
          0.8223769971674204,
          -0.06071608680845908,
          -0.17030849310424845,
          -0.8740020342948647,
          0.04995526338509708,
          -0.5409051320099008,
          0.8932933724730412,
          -0.8993934137128633,
          -0.5456513516974352,
          0.9992496638595467,
          -0.9008902284632221,
          -0.4322305466290341,
          0.3716921576671055,
          0.04198744997832131,
          0.9293259955360583,
          0.1618905456916321,
          0.7692932648073674
        ],
        [
          -0.17808817342902428,
          0.6008404154139806,
          -0.5415870510368017,
          0.6187972520499203,
          -0.25070094986051483,
          0.8047385009571029,
          0.9587109982274757,
          0.21329993318244522,
          -0.3881775071127911,
          0.12053234324725981,
          -0.3476554987196649,
          0.19338890472768666,
          0.9545501497786035,
          -0.17105227627064915,
          -0.8227931665507877,
          -0.13547346879456335,
          0.5988177706677598,
          -0.5431352067365071,
          0.13399265661731086,
          -0.3466010447501757,
          -0.17126857675525822,
          -0.6770040202821308,
          -0.7303196556837221,
          0.13000939602099937,
          -0.9974741309324839,
          -0.10944100689203218,
          -0.29239832129645477,
          -0.6924907266991669,
          -0.12302749268430802,
          0.3372327655523115,
          -0.6618787087403156,
          -0.5701955719629259,
          -0.07006839253528856,
          0.8776384498860775,
          -0.47722803961537086,
          -0.4957327562884503,
          -0.015649255701366993,
          0.9600872488522794,
          -0.4853134769503584,
          0.905546412059905,
          0.04320323689242889,
          -0.6355891968712349,
          -0.45781414604915316,
          0.2147726325618966,
          0.5273636688014025,
          -0.9323415263862516,
          0.04912549472919685,
          0.7193188587903482,
          0.963403158998482,
          -0.7289556545271081,
          -0.5555808728562047,
          -0.9395264967091146,
          -0.619072762530231,
          0.9769961716445055,
          -0.672728686238335,
          0.3332265718173568,
          0.09944940784512415,
          -0.7485214591056104,
          -0.6184114781972908,
          0.4434989790852297,
          0.8983205644913885,
          0.8300204677332853,
          0.16335502976855665,
          0.09608406083657929,
          0.19974727317529117,
          0.1956235985596373,
          -0.7097651012328328,
          0.6560488096790036,
          -0.22504369489913012,
          0.8954272066688809,
          -0.17923777806515018,
          0.6587054189951447,
          -0.5717925976065601,
          0.4414760447764481,
          -0.7673499729792409
        ],
        [
          -0.7032046654025542,
          0.8497109389383315,
          -0.7983110772826483,
          0.17028878887187515,
          -0.07588855791478455,
          -0.5124006146035787,
          -0.8336557049922493,
          0.29457891616976983,
          0.5839078665095361,
          -0.8126252982113242,
          -0.6015077450756228,
          -0.8664299415455723,
          -0.9454111485834621,
          -0.7566534292512048,
          -0.5900524330408911,
          -0.24902267674803102,
          -0.7379956286241687,
          -0.13402741270560847,
          0.9181657293699851,
          -0.9500208157883939,
          0.7846049337477816,
          0.3900730035828201,
          -0.9486851403296059,
          -0.07952941635176725,
          0.1430363317387049,
          -0.41480501580168366,
          -0.052893785050792896,
          -0.14542050529194972,
          0.0005799958177199471,
          0.18692531662531323,
          0.24910253139545757,
          0.8080137417287694,
          0.2830753963310575,
          -0.5727401968609336,
          0.5879127928993984,
          0.11652509767950958,
          0.7604658257203827,
          0.8354942496672639,
          -0.6009281139593143,
          0.3181961711404029,
          0.8934322237215561,
          -0.179773080306179,
          0.39713641243119574,
          0.8032757646695355,
          -0.8100449302294712,
          0.2377556579773778,
          -0.9440822877504321,
          0.04261823289116773,
          -0.9692434891157491,
          0.01626011854707645,
          -0.7370733470362567,
          0.5197963725197141,
          0.7478809108162519,
          0.7543279178421908,
          0.9437619150545953,
          -0.8028697445633113,
          0.9481919899773965,
          -0.9671919551125768,
          0.24382259879242063,
          -0.6816343988976783,
          -0.584697281627863,
          0.9287567427000606,
          -0.2869441508839018,
          0.3248593938195919,
          -0.7058795270543929,
          -0.8899420987611171,
          -0.6876186837742179,
          -0.2287892978612347,
          -0.7070025681072958,
          -0.9105127555645489,
          0.24961340645178343,
          0.27621758837356714,
          -0.3512509739526509,
          -0.7628636246373119,
          -0.34030091256989714
        ],
        [
          -0.21044560225660325,
          -0.4641713357310766,
          0.5094451814262442,
          0.2850958646134587,
          0.6678225116760039,
          -0.9107150476968453,
          0.43605150383894287,
          0.8116108311724557,
          0.712704145623948,
          0.27814578327534445,
          -0.8093562481410954,
          0.8991125956957539,
          -0.7593269031191894,
          -0.475990218318886,
          0.45717396665319276,
          0.29472657875315944,
          -0.08035348177535964,
          0.11385073001536261,
          -0.8058154831193783,
          -0.29805239977270853,
          -0.9785523253529884,
          -0.3087632481338874,
          0.897390050311023,
          0.0491379138863155,
          -0.10592968177285011,
          -0.4606875476936416,
          -0.8951921114484513,
          0.8626107168842264,
          -1.0647551146608123,
          0.18627595983130485,
          0.4938410049579621,
          -0.09080789657655064,
          0.6300551176334737,
          -0.8449015707259311,
          -0.30995774109300456,
          -0.03147669005842024,
          0.6409566169924492,
          0.5665924209126574,
          -1.0611628616079298,
          0.1386641930311403,
          0.5509409096217075,
          -0.9881336045628171,
          -0.9737597074342303,
          0.8636943119098466,
          0.18571605475584363,
          -0.01639243533614998,
          -0.4501342682789925,
          -0.04317174548881124,
          -0.033416695301007764,
          0.7202739422144484,
          -0.7447952447737936,
          -0.2619668420297043,
          0.753504300785907,
          -0.3376201697590555,
          -0.4496744953001206,
          -0.9666471516207166,
          0.8015601023666392,
          0.11736121758546458,
          0.16219391816147288,
          -0.22179972780099694,
          0.04444193937324403,
          -0.6126699239695323,
          0.8088861905428679,
          0.39279435109581273,
          0.23443777195327167,
          -0.5258564013327356,
          0.015366845147058019,
          -0.047732283387616814,
          0.2221534331115998,
          -0.9625987324925266,
          -0.625884482107042,
          -0.1682702808628429,
          0.009442679404780474,
          -0.6367997367400493,
          0.8233266404590586
        ],
        [
          -0.835264824727504,
          0.2549002976536064,
          -0.49924212461775924,
          0.7178185655501778,
          0.1642467334316473,
          0.1379312716612976,
          -0.6723451152964821,
          -0.2425381522983324,
          0.6047759657724132,
          -0.336822976255561,
          -0.8502506327015205,
          0.13982858878501983,
          -0.5572549610813953,
          -0.6439020120058458,
          0.04567231762970314,
          -0.49134468792689157,
          0.9136313855130815,
          -0.599396058516594,
          0.22686933758466443,
          0.9546098178021462,
          -0.7376613813485904,
          0.6875171637885527,
          -0.9675177779818043,
          -0.05370352059661787,
          -0.13505544120525675,
          0.6232138604711037,
          -0.5305606185710321,
          0.060208003759539164,
          -0.3986348256077288,
          -0.8822857840060552,
          0.6133274206445942,
          -0.3146609448970976,
          -0.5685831946224622,
          -0.7437795845001429,
          -0.9319293071066048,
          0.6818173973766164,
          -0.9629797595823218,
          0.9085764372767011,
          0.28288953267103745,
          0.32412190345793646,
          -0.40045877931116536,
          0.5140725389720333,
          -0.41797749003739604,
          0.1295252075812324,
          -0.3617988966021035,
          -0.348261309250836,
          0.5939724636419836,
          0.6722455796088064,
          0.46929502515510635,
          0.3356935099117259,
          -0.03791787988734563,
          -0.7416340803988986,
          1.115907493442707,
          -0.08797875157967372,
          0.47209180292974734,
          -0.4062635261235149,
          -0.26272387576218037,
          0.23158307062039735,
          0.8824891333532161,
          -0.6302677778932724,
          -0.28988922524736266,
          -1.0277816660451409,
          0.4615641593300792,
          0.509949679272838,
          0.713094456172711,
          -0.4931986584045015,
          -0.8321864552836407,
          -0.38679787705637203,
          -0.49383318481760785,
          0.985429012979604,
          -0.004468408756987952,
          -0.94258137295713,
          0.11747945668280746,
          0.7350752204298443,
          -0.34009883866563273
        ],
        [
          0.4640883758749217,
          -0.8094820852632929,
          -1.0606875344009141,
          -0.7447374046258107,
          0.9964452138840612,
          0.47837973345973245,
          -0.8861087177710828,
          -0.15289753834917225,
          0.7840883319407976,
          -0.9618239601785226,
          0.6291297356916286,
          -0.5687450422891902,
          0.5801131538640947,
          0.5521612918997425,
          0.3560902201118045,
          -0.7501238062997914,
          -0.6916849486310741,
          -0.8460382843896506,
          0.4823976987794201,
          0.18684352880828836,
          -0.21103675022009516,
          0.9279482121600703,
          -0.004118634092408868,
          -0.5437903493075661,
          0.28847945253275165,
          0.2976840102232047,
          -0.7633779219470797,
          0.10991099439474988,
          -0.8447515867191613,
          0.40892382243442515,
          -0.4654239679280224,
          -0.7608885736628972,
          -0.7812616712139768,
          0.2545296555506268,
          -0.5965633892759318,
          0.17823641240743715,
          0.14360013295244642,
          -0.5974569218343494,
          0.610696686683978,
          -0.6815921884867285,
          -0.653800368296155,
          0.8890477895839259,
          0.6250265298677538,
          0.23848009485359523,
          0.6031863357504994,
          -0.7803110423787172,
          0.3971494945579672,
          0.08673525052615712,
          0.5437405881776814,
          -0.4419007254741497,
          -0.511360375300439,
          -0.3103631013910718,
          0.8421170048510938,
          -0.40304277028139834,
          0.8668286249037354,
          0.6520778417247675,
          -0.37799375502384747,
          -0.2834104769779948,
          0.9985114704034119,
          0.4058439607944857,
          -0.5694441148949836,
          0.7698833999592292,
          0.3423364229048174,
          -0.508392798999469,
          0.6408970406548365,
          -0.27839212816052683,
          0.2711206745140854,
          -0.09948127856277722,
          0.5077983155361689,
          0.9553600597756966,
          -0.9273139758532536,
          -0.1859875705518963,
          -0.17774523935260556,
          0.020208536191736348,
          -0.5011304969328556
        ],
        [
          -0.04014314998510882,
          -0.047882230137830994,
          0.19260075541903587,
          0.34205353628188107,
          -0.9252271274007886,
          -0.32563134503370605,
          -0.2540067939625925,
          0.9447362042510639,
          -0.8042899560983221,
          -0.3513909114094703,
          -0.43303983175809524,
          -0.015817341841481092,
          0.008791042357605104,
          -0.39499700788594455,
          -0.09704362166209139,
          0.599484501879269,
          -0.6992411757052321,
          -0.22253511360044653,
          0.7670649908346487,
          -0.371984258580197,
          0.682041761598111,
          -0.24726325292826773,
          -0.20161063863849965,
          -0.4405908049155638,
          -0.28958913269635556,
          -0.09149932993447311,
          0.9828673865601809,
          0.08708962170913068,
          -0.6068260043921168,
          -0.31251258447022545,
          -0.8065926249729138,
          0.9192375807085966,
          -0.49658075978122573,
          -0.9162048429276631,
          -0.6293500208202361,
          -0.5125510615354707,
          0.7056605013008923,
          -0.5325292800626116,
          -0.7485965290216996,
          -0.93239282164166,
          0.9139298829169755,
          0.04355470724174282,
          -0.7547008523143718,
          0.09924267176839896,
          0.11260764091571529,
          0.2690948570806304,
          0.3701136926851299,
          0.5743736473404089,
          -0.13499633430943447,
          0.3607535073492467,
          0.7648016477669424,
          0.17503820202558587,
          -0.1709281792599513,
          0.24000815005398354,
          0.29630977644822354,
          0.17621222719789742,
          0.8087479921097285,
          -0.4415678359211057,
          -0.017615300572232418,
          0.9097007699564661,
          0.6332982159615919,
          0.1675487715946046,
          -0.7533185114708155,
          0.935280548967258,
          -0.21560040178659134,
          0.15321246036362846,
          -0.7112998513970741,
          -0.5150743869737071,
          0.3785008455126122,
          0.2760753921193051,
          0.30023448049219326,
          -0.0017615667064917184,
          -0.07722179107774144,
          -0.5480800673585982,
          -0.6801565779307603
        ],
        [
          -0.8016130340700389,
          -0.906621613490989,
          0.5718884434671405,
          -0.07135499020975677,
          -0.7392634155857816,
          -0.7304937110180614,
          -0.4152373438180543,
          0.787891568719175,
          0.19056456066194283,
          -0.6533646120967616,
          -0.4953017069965018,
          0.9379035471941077,
          -0.9332262665064346,
          0.6047425279351756,
          -0.9575485947935212,
          -0.8551838379666563,
          -0.302648839564973,
          0.769570533051533,
          0.943229856338765,
          -0.7518630087843327,
          0.04415721252914295,
          0.8729796879493508,
          0.7974539594844924,
          0.4988026408398514,
          -0.0967368643606159,
          -0.6563865894372762,
          -0.15195290460994704,
          0.5777201065289317,
          -0.6875613970309669,
          0.28846133895578685,
          -0.49180072470571723,
          0.6352242870090075,
          -0.6772310246227224,
          0.5634686792880799,
          -0.8561504849381419,
          -0.41195480371320886,
          0.5797243042561167,
          -0.4519376238432927,
          0.22055436474407678,
          0.0636355035548739,
          0.30658600342352527,
          0.3966507411249219,
          0.5089363724822955,
          -0.5273110247601056,
          -0.39716925811755566,
          -0.6153304247523393,
          -0.6348771623191403,
          -0.5316394824810748,
          0.018288621872471728,
          0.664017770668172,
          0.8709248810670558,
          0.876948115344863,
          -0.2911420182491649,
          0.6727960312335606,
          0.3081378924122897,
          0.22998821799292157,
          0.4013824698167891,
          0.1702322490100867,
          0.866936079242989,
          0.8318815391198825,
          0.9347627425488833,
          -0.7844774993110547,
          -1.0572524373941719,
          -0.9045721515717585,
          0.7662299161316768,
          -0.44832498839054563,
          0.06385032535327362,
          0.5817465628025578,
          0.333385403425258,
          -0.37233396510761585,
          -0.3516382378085344,
          0.9111219162565235,
          -0.5648328273567245,
          0.3048860556526263,
          -0.9274255962188575
        ],
        [
          -0.2073860986519509,
          0.3247072287352113,
          -0.324264729451264,
          0.637790148234575,
          0.6633359765663265,
          -0.6922388641149968,
          0.9793467928580575,
          -0.47165755618502264,
          -1.069327349011281,
          -0.1507082188864839,
          -0.2201070045100036,
          0.9981145721329829,
          -0.28660048052071785,
          0.0009595474799626302,
          -0.04506385906490595,
          -0.5523299081766001,
          -0.999824871683864,
          -0.05970925968140865,
          0.363148007349793,
          -0.3075727254776557,
          0.3115162580876998,
          0.22621744724977746,
          0.7621497344631717,
          -0.10979405204278025,
          0.13260996225117155,
          -0.5080255283211104,
          0.5259860153826037,
          -0.8223418628419905,
          0.3973948087271828,
          -0.5257192297751287,
          -0.8750900326758763,
          -0.32412027768728713,
          -0.03253283164503662,
          0.9172022226495922,
          -0.4696270621742589,
          0.856962514384704,
          -0.6086076886354457,
          -0.9126212625967417,
          -0.15298716246484512,
          -0.7834521034031147,
          -0.3526195891905801,
          -0.3168673709439755,
          0.1362287408350471,
          -0.6345467264357869,
          -0.698065400940791,
          -0.6135863545948426,
          0.5203832215595092,
          -0.40675577352942327,
          0.6358674779676714,
          0.1541385401381814,
          -0.6485061502266136,
          -0.6348925841719211,
          -0.8662194721639754,
          -0.11715503670242705,
          0.6557427651194536,
          0.8033548315671426,
          -0.13434954339483252,
          0.7849921249295715,
          0.8532509675797142,
          0.6266429665386182,
          -0.14288544198266306,
          -0.8408765238345564,
          0.34847677813420885,
          0.7636788135079561,
          -0.7245384475486545,
          -0.7355481664092318,
          -0.33697054203160093,
          0.4039809997351647,
          0.6082847160915,
          0.41802724655800483,
          0.49252981080110514,
          0.1316973208643213,
          -0.5695098457543087,
          -0.36350599114228466,
          -0.034658429652073774
        ],
        [
          0.7870202046246573,
          -0.07042954490518882,
          0.5399389033405364,
          -0.9844256723854916,
          0.9004162045623911,
          0.07792662138711215,
          0.45604282094592163,
          -0.9436794762238492,
          -0.8186738330918407,
          -0.40699310143000744,
          -0.8722675035677089,
          0.45322281131570186,
          -0.17434689420245192,
          -0.4780853527103901,
          -0.6894027065959567,
          0.6457291922212929,
          -0.47292635221940393,
          0.7200214154970284,
          -0.05745881767484473,
          -0.40546372378267315,
          -0.06546326597291863,
          0.2764964990778745,
          -0.26236506414415706,
          0.7710544532656265,
          0.7390936197337952,
          0.9394631172680405,
          -0.2259130059081626,
          -0.43849626639622286,
          -0.5144020321838196,
          -0.4624763246378052,
          0.7230699889598984,
          -0.05788745612850166,
          -0.5007362472815877,
          0.3977212307101161,
          0.21164312696008292,
          -0.9687780803835673,
          -0.5489347818180409,
          -0.5214953063248098,
          0.1947237184171274,
          0.2595673687840232,
          -0.966748409025977,
          -0.16109864211113134,
          0.7256988845705696,
          -0.5623759977053009,
          -0.808619731497461,
          -0.5986239000771086,
          -0.3965670855159109,
          -0.002709555548085607,
          -0.6626789056041025,
          0.7160777355620622,
          -0.002462156501293264,
          0.5579164083687825,
          -0.4733387710931332,
          -0.2587668860869682,
          0.42329235619465566,
          0.1356823246219072,
          -0.2164487293873596,
          0.1670543754685676,
          -0.8030487864692764,
          0.368440296637742,
          0.6396407749456097,
          0.7605340027931944,
          0.8374866750862133,
          -0.9219340758550356,
          -0.3745884416822558,
          0.9226537091228685,
          -0.33464923242495836,
          0.555785132435668,
          -0.16002932618226362,
          -0.2822068770398478,
          0.6497808889357017,
          -0.13677391967255156,
          0.4529365835645782,
          -0.3371516969440935,
          -0.10688970451809476
        ],
        [
          -0.8077414024657488,
          0.7481225528843909,
          0.6684622447724515,
          -0.15085428025969394,
          0.5868451359688547,
          0.6584824439307182,
          -0.24150174523349044,
          0.4432838937887742,
          -0.30385182706276836,
          0.19421233245515612,
          -0.6729508885132471,
          -0.8460119062428115,
          0.399703109826697,
          0.4753817371068366,
          -0.13611648113344677,
          0.598142899342942,
          -0.7385920393126024,
          -0.3656657550699212,
          0.5731928315504211,
          0.13682718700906982,
          0.7575154383125384,
          -0.21524251927113175,
          0.02315851820613135,
          -0.960525189336579,
          -0.15109299334026338,
          -0.6935028994389789,
          -0.8912872760828103,
          -0.27563019825354296,
          0.7907188027443628,
          0.7408172650867866,
          -0.8159538364314856,
          0.17575827571451486,
          0.5142273745847001,
          -0.11827362452947363,
          -0.7029470683086863,
          0.7568653432500843,
          0.09552339223850768,
          -0.9778386431994588,
          0.08677952495950025,
          -0.12593570505198454,
          0.8102077680570523,
          -0.8393474097323921,
          -0.44614542500492016,
          0.5166170837957776,
          -0.433409640212765,
          0.13794554447920993,
          0.7424323163835895,
          -0.7249423724823818,
          -0.8106989133288955,
          0.8524214778078321,
          -0.2654742362565581,
          -0.4918904699148564,
          -0.5008616630602871,
          -0.7617588046780364,
          0.3785843169822636,
          -0.08839382683118613,
          0.07175103743914946,
          0.2100203005930868,
          0.358018786473283,
          -0.778183269826786,
          -0.29870164945380884,
          -0.5434355159635946,
          0.6192694671413601,
          -0.8696704185984979,
          0.6161887068080985,
          0.7662213744147947,
          0.4323967227101795,
          1.0550268755706234,
          0.06155295761661526,
          0.43024100848743296,
          0.7694892864390486,
          0.6588213719638589,
          -0.3871572251964911,
          -0.31504868848635503,
          0.8569047235606946
        ],
        [
          -0.5721486083889729,
          0.3925388320529314,
          0.9295001791186188,
          0.5186811001742351,
          -0.03205910941549517,
          0.05481406315301207,
          0.8072111443043415,
          -0.6256701437439025,
          -0.7974180833708191,
          -0.004633144445183923,
          0.9164249411676133,
          0.8623620660301294,
          -0.5754002269421344,
          0.6328150087267099,
          -0.789961150096043,
          0.4988450788206453,
          0.31519737127554537,
          -0.190641304386165,
          0.47566880307819537,
          0.016970661074606763,
          0.20867673289259736,
          -0.74530200525926,
          -0.5898088682163934,
          -0.9699824561420123,
          -0.2561489101257496,
          -0.07298498709710376,
          -0.38668678290416514,
          -0.977972163673527,
          0.9437293778649742,
          0.4378906919921205,
          -0.7500731502572425,
          0.10945455072989799,
          -0.6476490182866779,
          -0.4007069745106408,
          -0.8130633443326403,
          -0.40391202133192394,
          0.9078922906334145,
          -0.7326936394316634,
          -0.06753492598091732,
          -0.32525270798963773,
          0.4669679372892193,
          0.28885550942057747,
          -0.608201010471182,
          0.22245974301103422,
          -0.6374541687264238,
          0.38069316312456736,
          0.6848593748482762,
          0.5515656121125798,
          0.35982429023016776,
          -0.587651404557081,
          -1.1768521652600625,
          0.3358582414725574,
          -0.3554958768401226,
          -0.9107041708192385,
          -0.3396353573813702,
          0.6823975395384543,
          0.47949647848596133,
          -0.9715890527393687,
          -0.14580914073608975,
          0.5312213472923175,
          -0.978390342662943,
          0.041095728350227526,
          -0.7769137317778564,
          -0.7959519164897145,
          -0.8260865874148843,
          -0.2161161361559527,
          -0.31403377012674444,
          0.3513285631090768,
          0.5231310368949432,
          -0.7994841902070098,
          -0.3343839935241814,
          0.504609701550818,
          0.29611488795079827,
          -0.10766164064384176,
          -0.6100339643680822
        ],
        [
          -0.661780631896717,
          -0.28959432277114683,
          0.8874659341154807,
          0.3564764518952793,
          0.05575992964618477,
          -0.20958015951833886,
          -0.7439925337343096,
          -0.5935324455332678,
          -0.22911140964636212,
          0.9231402328525773,
          0.35746573527905534,
          0.10144398524807174,
          0.35637958808493636,
          -0.6044149518242827,
          -0.9395734616704283,
          0.3840064265922094,
          -0.7446532214835816,
          0.3930658555955254,
          0.502012896656979,
          -0.2898816330583385,
          -0.7659392546256675,
          -0.4356120940354806,
          -0.8725389518627348,
          -0.6282525807174386,
          -0.7552808909359883,
          -0.30095992834903784,
          -0.3293863582722887,
          -0.14358462273042205,
          1.0610813260494119,
          0.313231904763279,
          0.1691306233459422,
          -0.2545631113993093,
          0.10127391952328901,
          0.4614450771452058,
          0.18881044802753974,
          0.8764879323585019,
          0.19843338504249797,
          0.20871547718358902,
          0.17866268088650594,
          0.08445479758677896,
          0.1762225451895283,
          0.8555586127942227,
          0.6634964078592301,
          0.6685698451850952,
          -0.2106347221317726,
          -0.7053469479062922,
          0.4983521237009128,
          0.49343818404970197,
          -0.6490962903218462,
          0.9386351286737037,
          0.6996934116117948,
          -0.44657515659264035,
          0.9641741856289556,
          0.3440688686129126,
          0.060873722299410904,
          0.870696758256392,
          0.7485385074360851,
          0.11715288931061574,
          -0.33768523695196384,
          -0.1644792337990908,
          -0.8117522623150553,
          -0.9399918696366303,
          0.7208174592793988,
          -0.011146326365431003,
          0.46464529557784173,
          1.057129363509522,
          0.5415996080266547,
          0.5737497362165472,
          -0.1080475432675057,
          0.12875288840272114,
          -0.8632430481007898,
          0.8549823484237933,
          -0.8832516016750622,
          0.8830641610338636,
          -0.20943614842286795
        ],
        [
          -0.14344344819341387,
          0.9789526551118993,
          0.5234076848228431,
          -0.7926421866281972,
          -0.7662708664094708,
          0.7514220593242453,
          -0.8700951884440764,
          0.6118336841870452,
          -0.405555449032562,
          0.5665885989817605,
          -0.3406610113145381,
          -0.5293857506022341,
          -0.7096402541343867,
          -0.5881657115408002,
          -0.7525844092851389,
          -0.8540474022390622,
          -0.5212914445948257,
          0.10398237078069705,
          -0.1680810173835101,
          0.3396328843993506,
          -0.7676662934435248,
          0.10684603398444592,
          0.471899037255208,
          0.016117597682796397,
          -0.23681469514562048,
          -0.09313470946184742,
          -0.13639435631505864,
          -0.808508143851788,
          -0.4925920905577016,
          -0.22594017470823596,
          -0.692911966103038,
          -0.031041084431767542,
          -0.47721426689085567,
          0.8142518489535708,
          0.5337518985015666,
          -0.3985154327053202,
          0.6724112303741591,
          0.5110786758326894,
          -0.13367198625651167,
          -0.0199605846443629,
          0.2769711960842337,
          0.523992190524567,
          0.7122492724410745,
          -0.003154257762838064,
          0.050190469295072225,
          0.8127144379449074,
          0.10080430918747041,
          -1.1194585658564642,
          -0.03150386273954986,
          0.4376308431242373,
          0.004856999772997916,
          0.6494716716187621,
          -0.14150944556302383,
          -0.3908347471353424,
          -0.5779166307136124,
          0.8146575891239982,
          0.004258541928416015,
          0.029827817869076532,
          -0.3857563867742404,
          0.5266121708487685,
          0.5108008866138298,
          -0.7103230518404424,
          -0.5618103291747114,
          -0.2813746927981362,
          0.5051183541535771,
          0.7578049994205447,
          -0.4337610119570696,
          0.7174248207774914,
          -0.3096336077758442,
          -0.06513890923975918,
          0.6985484661616055,
          -0.8792307084061752,
          -0.8334229521325176,
          0.8536063513360013,
          0.13407296628365542
        ],
        [
          -0.29557763265685205,
          0.6700512848111138,
          0.7131664474171626,
          -0.5040863811138201,
          0.8104012389665906,
          -0.9768185187566554,
          -0.5021964606295217,
          -0.4745183873369069,
          0.18698066703811733,
          -0.5017350775320143,
          -0.42294762606283826,
          0.3389045461760629,
          0.3008259978818648,
          -0.004480277294181434,
          -0.6939219929823239,
          -0.5163807889328746,
          0.5690041781644557,
          -0.1102641539051461,
          -0.5158997901647742,
          -0.3853892043862089,
          1.0044924883596853,
          -0.06969753609586737,
          0.827820651075,
          0.6918162424386077,
          -0.17486397437328005,
          -0.07906786342239869,
          0.24949588515536103,
          0.39259257627472977,
          0.8516833897871426,
          0.7785442643086137,
          0.6772041089250167,
          0.5600873660637768,
          0.6618721235299523,
          -0.5046108459399564,
          0.9980597169139651,
          0.5950190884451683,
          -0.04065394127590176,
          0.6158890072168841,
          0.9336832856047725,
          -0.07402962841836347,
          0.0272277984013845,
          -0.6091408485901155,
          -0.9296362328890071,
          0.36405706283480077,
          -0.018185077378491066,
          -0.5676175670314036,
          -0.4213734958790223,
          0.6269770897052074,
          0.8948476215911243,
          0.12760191540988997,
          -0.9553811602396305,
          -0.27043407325991176,
          -0.8443116571948552,
          -0.7372715003867152,
          0.39288517505596543,
          0.26661762369389197,
          -0.07074011755789344,
          -0.5713984077983953,
          0.626958414814022,
          -0.39076632232700925,
          -0.27530733738820173,
          -0.005260371977271916,
          0.7850050045405439,
          0.8704573684587316,
          0.9484115993034172,
          0.794867748799029,
          0.2718903099342868,
          -0.37950710898232465,
          -0.3438524807813618,
          0.5468749072700327,
          0.49231869355332314,
          0.7062935461029186,
          -0.2211916200376347,
          0.18052903080352456,
          0.46434728449954843
        ],
        [
          0.5123347971364185,
          -0.39562018657424064,
          -0.8892473243605767,
          0.9309263657322032,
          0.29847022392632117,
          0.22623650024810837,
          0.4848866117184638,
          0.31040018681378,
          -0.747958733108728,
          -0.028010492561116873,
          -0.3265327731193146,
          0.28990183601546654,
          -0.7779030894155637,
          -0.25798831291014696,
          0.3414954490011368,
          -0.6672071590257166,
          -0.16225379556796282,
          -0.43588923017746417,
          -0.8497361368101966,
          -0.4199348480626406,
          0.16632746314401992,
          0.5289521107179356,
          1.0964496656602716,
          -0.8259999182064179,
          -0.9583028035466173,
          -0.6025327602387414,
          0.5413882388684237,
          0.22480958027267892,
          0.7869029089970792,
          -0.7970174648633694,
          0.9686696274647186,
          0.9400519896340671,
          1.1140004816497018,
          0.4517063846613203,
          -0.5663063610343356,
          -0.8908521600187693,
          0.6357738303561882,
          0.8613837359143546,
          -0.5484390231795784,
          -0.4292441484329552,
          0.7054407795553769,
          -0.5926472061918919,
          -0.37238584911959105,
          0.17938230640709624,
          0.9223773385073595,
          0.8384279628160183,
          0.013233365586572177,
          -0.5786661340644215,
          0.629411381277913,
          0.22851377075239832,
          0.9612249940648883,
          0.6587262146152799,
          -0.269075559368956,
          0.7092305430355466,
          0.8520406882861136,
          0.32087654028224893,
          -0.10286252520207251,
          -0.5770748332061294,
          -0.485493142303139,
          0.7134100465203743,
          0.9477540069267645,
          -0.07663368881827326,
          0.3932599973798578,
          -0.6107876047055321,
          0.6751464232800765,
          0.8053621897396583,
          -0.47910236247016913,
          -0.4860886578007584,
          0.9610595164014626,
          -0.36183824888448646,
          -0.40839017471858563,
          -0.7321504156066095,
          -0.22735338126927349,
          -0.5793137108907442,
          0.9175263881660923
        ],
        [
          -0.05521263638953222,
          -0.9753972026238924,
          0.8638277855472246,
          0.4431803307986588,
          0.44027598022352915,
          -0.4084137968445853,
          -0.5989284356928426,
          -0.8644899326326039,
          -0.09237144058964342,
          -0.8914125417223504,
          0.8415250089958621,
          -0.6058006110333323,
          0.42953919402414353,
          -0.21858586357222265,
          -0.2191771265008081,
          0.5258644536113655,
          -0.8587872428122953,
          0.7271807109474788,
          0.9773735845617328,
          -0.7766253382981168,
          0.6428277307051058,
          -0.9089617398720118,
          0.4682466747295493,
          -0.36616870772047516,
          -0.4630908938586864,
          -0.3862315922790782,
          -0.9942955405526086,
          -0.32239907910717464,
          0.18163134800826708,
          0.5142730498595337,
          0.9103740794948831,
          -0.8567788053824916,
          0.2889585085957846,
          -0.541163603188049,
          -0.09863776370694591,
          0.011146904450842765,
          -0.7940585373906932,
          -0.06350868915085828,
          -0.8024277331427974,
          0.34269711037286477,
          -0.14511747125961172,
          0.7424727812935186,
          0.24971848125084462,
          0.6616159992650155,
          -0.40364540384580394,
          0.9077258327279155,
          -0.3948296644328595,
          -0.4469317652638416,
          0.060784908254594726,
          -0.058955235845501885,
          0.8523012118471479,
          -0.29842069466465104,
          -0.10314252239202043,
          0.8650853290749684,
          -0.8070093764890922,
          0.8762773493911968,
          -0.7084411937710953,
          -0.8783997428427135,
          0.540810194414119,
          -0.36034347338148,
          0.39495175267709093,
          -0.1396261899286002,
          0.48189643934628074,
          -0.29542032068349633,
          0.3674111335241359,
          -0.3136489281167929,
          0.9098889274916873,
          0.2802436447428148,
          -0.1385130402301944,
          0.1888944579492879,
          -0.18142928713090134,
          0.8330894104058182,
          -0.24743121373629337,
          0.7239997902399601,
          0.8111930213440497
        ],
        [
          -0.047356311323497824,
          0.5769868511099923,
          0.0700607905534536,
          -0.6063310013910673,
          -0.420078505236829,
          0.6038299862175406,
          -0.0026692983821758887,
          0.25124519586260957,
          -0.11261375980951964,
          0.3909227495006594,
          -0.5240568018416767,
          0.8556152452259901,
          0.5091842800033597,
          -0.47382882182838737,
          -0.999440584565622,
          -0.616936327570913,
          0.26461106267658707,
          0.3614365695273201,
          -0.4251267372812466,
          0.4558014512056907,
          -0.12115498354506427,
          -0.5664955438560395,
          -0.7901280373825996,
          -0.5855068098541666,
          0.950929137050168,
          0.6236900794593625,
          0.772828234436188,
          -0.45055345146098114,
          -0.5629937021499511,
          -0.43986082957165457,
          -0.8411560891915896,
          -0.5635723419527281,
          0.7553331554334206,
          -0.587306468126851,
          0.26556759257196194,
          0.9173118747332771,
          -0.11020469119074416,
          0.540114633064992,
          -0.09955889665928637,
          -0.23125186549002574,
          0.22161449728752114,
          -0.7570671999792857,
          -0.9464115244162741,
          -0.5999158671135141,
          -0.6672105110163349,
          -0.8999717710200786,
          0.2395679645969373,
          0.46600302153157475,
          -0.7852911508203806,
          0.42362085467355826,
          -0.07963699812853571,
          -0.8591267627819081,
          -0.3926486723045124,
          -0.9272506013561834,
          -0.6125294553222682,
          0.4536874220311704,
          -0.7496724011845336,
          0.8303467817395734,
          0.6326905738503115,
          -0.3467823875670628,
          0.680301775745678,
          -0.5304243978248896,
          -0.028601144804423877,
          -0.11068374406658185,
          -0.18628070134116914,
          -0.4019662200433285,
          0.41745592800463865,
          0.6587866935682447,
          0.9888974973571321,
          0.17949061407559497,
          0.5864247417574949,
          0.20401693803288384,
          0.05227882098441383,
          0.8959423349438258,
          -0.54637134690746
        ],
        [
          0.5676210171515318,
          -0.21418448822975122,
          -0.3364392747797864,
          0.24801123927101143,
          0.14856867158890102,
          0.6373424396297295,
          0.0886005919182824,
          0.5761661519083894,
          0.9466700226141791,
          -0.1775310376432936,
          -0.6525577592885496,
          0.621566738445426,
          0.6897697637503294,
          0.16843195718062276,
          0.027353015992087837,
          0.7542169265724781,
          0.27928698342626873,
          -0.9781224700795389,
          -0.2626806448499358,
          0.7491681550764042,
          -0.5155727636019884,
          0.19102848569808106,
          -0.6444816365663404,
          0.8381975635244112,
          -0.6250297590504037,
          0.28782173930866706,
          0.6816493769089765,
          0.2566110239704109,
          0.481976481871738,
          -0.5871478487683919,
          0.9786405861027168,
          -0.8403602995717914,
          -0.5363592312174328,
          0.8987076113574917,
          -0.5180794346287234,
          0.8511226542470985,
          0.4304551333837727,
          0.35445946186253297,
          -0.027580713007105115,
          0.20896686251091268,
          0.8466724754478205,
          -0.5358188348533096,
          0.8285157187429388,
          0.7076775926932561,
          -0.4876572905070592,
          0.20112196913540314,
          0.23866869768298077,
          -0.2695303083740687,
          -0.013599365771970046,
          -0.9930567676495594,
          0.6407610963164414,
          -0.9303598886714461,
          0.9227261889193767,
          0.3557984111700566,
          -0.39798730023963325,
          -0.4539647500017917,
          0.234227591007657,
          -0.2686588299179209,
          -0.4964050856010987,
          -0.1913034631171997,
          -0.9313724146294675,
          0.5777688783233377,
          0.38615723686050885,
          -0.13642229307167142,
          0.0011949069309982185,
          -0.5616710737456309,
          0.3942145448876945,
          -0.9134488047633411,
          -0.9660965383746012,
          -0.5187162380149003,
          -0.8890895569625417,
          -0.524753726104175,
          0.8640640667294337,
          -0.25289655624494733,
          0.051430864507452156
        ],
        [
          -0.24092837709668036,
          0.7998540144888777,
          -0.8363160358510568,
          0.9375056976260518,
          -0.41452238703559735,
          0.20253109512225453,
          -0.41177542274967094,
          -0.8389696862581042,
          -0.378977391090031,
          0.02098177095364573,
          -0.9201312042962434,
          0.746179011509057,
          0.2479208892250826,
          0.17193719229435445,
          -0.9751118659939961,
          -0.7905657240737609,
          0.2869708337898483,
          -0.6582908903687187,
          0.3824684510870191,
          -0.08812309283143582,
          0.3939364071323876,
          -0.9256231362162972,
          1.0850320131854194,
          -0.5308439180086557,
          -0.4495156150821925,
          0.29776538055745994,
          -0.6985609139288327,
          -0.5168628205141594,
          -0.5257865828250443,
          0.4402125260648445,
          -1.10132022302301,
          0.06996055535106369,
          -0.17370580418087292,
          -0.8655046019249595,
          -0.9062092740081725,
          -0.27203177713448806,
          -0.09056993167736405,
          -0.5429245334768726,
          0.07735212289779221,
          -0.2621988386851686,
          0.6304401753034611,
          0.9482530607502664,
          0.1360982887038623,
          0.7651974212525547,
          -0.4080170228457661,
          -0.8821959114925235,
          0.48673007688854497,
          -0.549839720015305,
          0.7467042778129701,
          -0.683720085449437,
          0.8632914546577104,
          0.1599119636425823,
          0.6273165709106584,
          0.05416010793584958,
          0.23580230294778648,
          -0.7642574123358645,
          0.7001372831633876,
          0.16947715297793442,
          -0.001314022494353884,
          -0.05650920525046925,
          0.3774751927688911,
          -0.6940417259311227,
          -0.3691365353054329,
          -0.1234391300342736,
          -0.8892117788937481,
          0.40909085115922267,
          -0.9843465981913235,
          0.4087079766380519,
          0.5076164318451339,
          -0.22863071962585702,
          -0.8222145971315573,
          0.5923415630764959,
          0.7923155546854175,
          0.924840083964889,
          0.11803414715660043
        ],
        [
          -0.6823331708687839,
          -0.39990977277372197,
          -0.6571540587706082,
          -0.43695082655633455,
          -0.10642594459311128,
          0.6586436090099559,
          0.8835705401780141,
          0.15673337925251568,
          0.2786034783040603,
          0.9718582461024274,
          -0.5378354896032524,
          0.2846040207230165,
          0.834044868818042,
          0.4293847313506782,
          -0.6284450577967879,
          0.1628941189266823,
          -0.4355369939781166,
          -0.6355977570099024,
          0.17416486784940832,
          -0.9235474247114897,
          -0.8544416316143599,
          0.5506135345521073,
          0.9330073928230033,
          -0.9545085781991295,
          0.8702470201945061,
          -0.610632657226482,
          0.38477183720216496,
          0.6782277828949526,
          -0.42032711566782166,
          -0.862044631862648,
          0.7795796933414666,
          0.4060000543889434,
          0.3204257192951516,
          -0.6661092560761173,
          -0.0226752204079268,
          0.013182901725849086,
          0.34633805142142604,
          -0.6834320104607596,
          -0.1766873676878471,
          -0.2998690145144045,
          -0.7026595660811403,
          0.08640875194942499,
          -0.644115377837646,
          -0.9284858392557084,
          0.6314120108855454,
          -0.39186346642908143,
          -0.7734302540499933,
          -0.08179967808945979,
          0.28264753816348387,
          -0.8706104705470445,
          -0.03874414883174726,
          0.9799786172034862,
          -0.7167284387518733,
          -0.3889293564584122,
          -0.5852772687008114,
          -0.4621917843376133,
          0.8069266229596597,
          -0.5982158506001851,
          -0.6826730155811265,
          0.6578025047031977,
          0.29859606193840804,
          0.05300419581805471,
          -0.6646158242914965,
          0.3623667542409245,
          -0.9372870311960004,
          -0.27537718870015215,
          -0.6486349438235209,
          -0.5355168849566292,
          0.5688552359894912,
          -0.21947254394257554,
          -0.23373789081428287,
          0.32180138297049765,
          0.40955589870723763,
          0.03112864299427054,
          -0.48187635201976686
        ],
        [
          -0.4404077355843537,
          0.6940000767589419,
          0.608535248455945,
          0.4879380636752946,
          -0.06215684780853925,
          -1.026316047450315,
          0.932647133356051,
          0.3907392022680347,
          -0.837582302341187,
          0.08742162050428645,
          -0.9662360404049468,
          0.28045483086942513,
          0.7710843711886324,
          -0.9391188209352452,
          0.5183024348239762,
          0.7171377197254909,
          0.8034541275143315,
          0.6046425041874026,
          -0.18146922784518593,
          0.5041374464925052,
          -0.7273060857354121,
          0.39936448067492725,
          0.293593730727269,
          0.7827907444055084,
          -0.13059776524561606,
          -0.2181133502263052,
          0.3488475402068496,
          -0.8320359932284753,
          -0.8790528488798115,
          -0.6290159366698187,
          0.1571051131303962,
          -0.1985046747548762,
          0.7768338090985851,
          -0.2461599198545281,
          0.7863710336989616,
          0.6935821865798535,
          -0.5288752432287742,
          0.20200933731153897,
          0.37725366349829187,
          -0.07305829187431456,
          -0.22712825992208607,
          0.35326288228654246,
          0.01271856376227154,
          -0.13868211745272174,
          0.808034272889605,
          -0.9031791119465322,
          -0.4249802351031956,
          0.8139100992151037,
          0.007338263997035327,
          0.6269649705998281,
          0.9079556942985394,
          0.7546691235354515,
          -0.0050768861285660286,
          0.17839478347302534,
          0.5502139383025791,
          -0.4565105628740247,
          0.40202491710594135,
          0.0424685263386003,
          -0.1475855437222755,
          -0.9283427366224268,
          -0.7197282625645949,
          0.5065707077865076,
          -0.2908062694392215,
          -0.5046801286217213,
          -0.3923382505888955,
          -0.11497371785992666,
          0.45165057199890224,
          -0.08204330885506517,
          0.6377939544183091,
          0.037309358990143426,
          -0.25949663555283414,
          -0.23211835290647914,
          -0.7214764704370973,
          0.10421129199817658,
          0.7663838065954756
        ],
        [
          0.9001166242017923,
          -0.1890743984986636,
          -0.32360979056267336,
          -0.10830060435958933,
          -0.3857898497541701,
          -0.451632427190813,
          -0.18709442909808693,
          0.6596614743847949,
          -0.16404862483060656,
          -0.598480398478638,
          0.7501668193030323,
          0.41351881043898997,
          0.40631240968722837,
          -0.13453498140630138,
          0.6291756033565465,
          0.629809344345293,
          -0.9719938591092339,
          -0.9010149793111766,
          -0.9452428185729101,
          -0.20965826609875204,
          -0.24745456365283536,
          0.3114297224422473,
          0.6441199226238981,
          -0.9263850544498036,
          -0.0566307735302547,
          0.026823054836956836,
          -0.3682667048384789,
          -0.787132221954836,
          -0.8555862010768989,
          -0.639790437236188,
          0.9775474308811888,
          -0.03738993140501057,
          -0.6284208252108652,
          -0.08916962523933414,
          -0.7838558335364398,
          -0.18904283793086804,
          0.798554501813155,
          1.0015705729049875,
          -0.15843483602115865,
          0.328379942684376,
          -0.8088614428818905,
          -0.9274766060365476,
          -0.945365959884123,
          0.0713748389650953,
          -0.12177146560051365,
          0.3687830533167611,
          -0.18229772324805035,
          -0.28542975114685876,
          1.0355345971514467,
          0.909754695461428,
          -0.5440245448176182,
          0.06274333482372021,
          0.2426126808523752,
          0.9159888133806176,
          -0.8753075445650732,
          0.4192056633034298,
          -0.0010592321739038013,
          0.07786864391807757,
          0.7454234733790163,
          -0.00545020570792909,
          -0.6956869583893197,
          -0.45747311126599977,
          0.19115770297806245,
          -0.7238555935025476,
          -0.8021771448661297,
          0.7880944332703924,
          -0.7353001402820737,
          0.43465607443820575,
          0.3412762324085004,
          0.8212043547071867,
          0.24478310128824746,
          0.14736018152635597,
          -0.5776869270906149,
          0.41296856975815066,
          -0.9999015202947055
        ],
        [
          0.8995620945814471,
          0.2406915900065303,
          0.9554997769094271,
          -0.3544537999272186,
          0.6842751462054588,
          -0.28288498718584076,
          0.8454939857945827,
          0.8535374791291566,
          -0.19808998746557638,
          -0.7548956261038188,
          0.18344848687281345,
          -0.19804488307036633,
          -0.1850739221560276,
          0.8691441790986932,
          -0.9724499797638906,
          -0.05649795935322022,
          0.680872325122438,
          0.0271133297078364,
          0.6919152436082112,
          0.4824403782568436,
          0.6741287407448915,
          -0.2079841266771485,
          0.8323597504165599,
          -0.933292715889424,
          0.04878301426669429,
          0.5432691304913903,
          -0.8817746549164157,
          -0.08776282983574069,
          -0.9408249997369942,
          0.8318441691716967,
          0.33785599393391186,
          0.4782207698201436,
          -0.4891787848735537,
          0.8429384053515034,
          0.6347398107035214,
          0.7245067402444576,
          0.8487061367754947,
          -0.17121551216266834,
          -0.9322519505572822,
          -0.5185670758307412,
          0.4239332421575779,
          -0.5552307270142054,
          0.8331634949765632,
          -0.6471531159814552,
          0.9891804529948423,
          -0.35155344456925164,
          -0.7951167572837238,
          0.006524054587286443,
          0.8764647886334921,
          -0.920142379532638,
          -0.05706304042186083,
          0.6392733102672756,
          -0.7687522566657105,
          0.5754725145433233,
          -0.36059092660940806,
          -0.5899508137378374,
          -0.36927484619897344,
          0.7605327932200288,
          -0.7971964448897004,
          0.7205269294238072,
          -0.7781243653444757,
          0.5058341510257562,
          0.2852679754381519,
          -0.8474500016790879,
          -0.31319782111329575,
          0.7053336781975674,
          -0.05309401123460038,
          0.4571552117599933,
          -0.8708362167889323,
          -0.7355453815120354,
          -0.9101986064821375,
          -0.6117672684646861,
          0.8647730266625531,
          0.030886859405906186,
          -0.6097647161293489
        ],
        [
          -0.29036563481085026,
          0.8468076942413512,
          -0.3461453462139792,
          -0.4896675430716466,
          -0.6917116428503407,
          -0.13521430512136745,
          -0.11550274487657197,
          0.588380324690017,
          -0.6539906303935343,
          -0.35076254181401945,
          -0.9279716058263955,
          -0.09109848594996621,
          0.4409026371244592,
          0.3565006309778659,
          0.9160730301498736,
          -0.16869921876089133,
          0.9141539789175214,
          -0.923038005768128,
          0.6287042829228144,
          0.8601919690835791,
          -0.957201877144437,
          0.5620946360445932,
          0.35763981645859166,
          0.48297535608354897,
          -0.19316885986152826,
          -0.7087316100108585,
          0.7544435807877887,
          0.9239969380184494,
          -0.8354799396917221,
          0.7307895637836456,
          -0.22737620758823068,
          0.7874381863495852,
          0.8995965193384201,
          -0.14616955602626372,
          -0.2575880621724247,
          -0.06497161213200986,
          -0.19436115803379606,
          -0.24998057622229092,
          -0.6575798304453023,
          -0.27404360532322375,
          0.6307582524196484,
          0.7214381355207617,
          0.9068346635443784,
          0.0927600892264949,
          -0.1037406345364206,
          0.5194389531456083,
          0.7985059040559604,
          -0.4554235596643319,
          -0.724279380334985,
          0.6357728337015851,
          0.35771390291552096,
          -0.10641144095587673,
          0.5377723844064892,
          -0.8356904072601083,
          0.722220331556537,
          -0.43279093774522837,
          0.08936594429664386,
          -0.4010038228215543,
          -0.9560943350448179,
          -0.29072753989861155,
          -0.9462958961886203,
          0.2406086881679692,
          0.41681328065290746,
          0.18738619848497376,
          0.5083157524331461,
          -0.4194573330462248,
          0.030009943976460285,
          -0.1716660436900943,
          -0.18055289652174977,
          -0.7082373314069308,
          -0.37412781719837357,
          1.0579329919751044,
          -0.7236393494111767,
          -0.33076766622501014,
          0.6649707966640266
        ],
        [
          0.6485085194185034,
          -0.4054574242845348,
          0.7597608120569519,
          0.5565366228594575,
          0.3979393098410045,
          0.02280347727133969,
          0.04334308367317963,
          0.9559425623240942,
          -0.43367853012167856,
          -0.16587498149363555,
          0.5627207442335971,
          -0.264615500067499,
          -0.7330979748242308,
          0.027104059255732338,
          0.08616223965536918,
          -0.3511006701767303,
          -0.10173432559670671,
          -0.02734938981727808,
          0.8505077311962128,
          -0.19401406914307318,
          -0.7566115239236302,
          0.08832900222199846,
          -0.9105755667164894,
          0.7478489135065556,
          -0.014089041293193105,
          0.7434770853258423,
          0.9439997309030423,
          -0.6142172002363986,
          -0.9788672336841211,
          -0.5922180597619597,
          0.9781006960021327,
          -0.7666873757607053,
          -0.22221059721922698,
          -0.3178706162402225,
          -0.1444949275273708,
          -0.13012974195945182,
          -0.39723762388759715,
          -0.5478029138553292,
          0.1755306679875157,
          0.33080289697271015,
          0.4611832140627059,
          0.938017970121481,
          0.7631252226776828,
          -0.06782940213966682,
          0.7391795761862326,
          0.9519824348483859,
          0.5252235611851322,
          -0.42415658907025483,
          -0.6715709528083548,
          -0.46568500711405697,
          -0.3874463286615758,
          -0.2106279241375666,
          0.2967554405324169,
          -0.4125711183096453,
          -0.2391904620756704,
          0.17516803602037445,
          -0.873790135525386,
          0.7072989639881091,
          -0.10491083029437637,
          -0.8754545725923935,
          -0.08928206057690793,
          -0.4244515722366562,
          -0.5160172237724098,
          -0.6942138126629203,
          -0.10101906447184295,
          0.15773349884985688,
          -0.1925415525966705,
          0.4266912019886915,
          -0.8195204574896465,
          0.11495970247779708,
          0.6895510299405916,
          0.4393675999562054,
          -0.92685291881262,
          0.7848352601624359,
          -0.8819126195647353
        ],
        [
          0.6391985921317321,
          -0.01864956884615454,
          0.06747236747759015,
          0.6060063683093029,
          0.16496417125760324,
          0.33944787021244105,
          -0.7037421579034739,
          0.08202610797554014,
          -0.24503922671556852,
          0.18059195805821426,
          0.7621620943261629,
          0.22319429631362064,
          0.8394979822568249,
          0.7310451460343739,
          -0.48488825185840034,
          -0.4068520274256751,
          0.19736136648255664,
          0.18607262671402455,
          -0.24682333708948279,
          0.6272493616926558,
          -0.5653862791824178,
          0.9418387076287955,
          -1.0106621530257118,
          0.7134636648223891,
          -0.4124615419681181,
          -0.8119081373532455,
          -0.15771969801025912,
          0.6441266295974208,
          -0.3463562787683774,
          -0.1136951299320228,
          0.16883999755134163,
          0.39427913269552217,
          0.8673975798314145,
          0.006050037068678767,
          0.827840906953281,
          -0.7999562487193207,
          0.5209443423250959,
          -0.03272950930633911,
          -0.6068386010784694,
          -0.5158567892708419,
          0.7562844597528949,
          0.2846110654940687,
          -0.49397776309998465,
          -0.38889446299954544,
          0.20155183417726263,
          0.044752507988456314,
          0.8196073143497264,
          -1.0498924433921333,
          -0.7239665892999927,
          0.49458638965609447,
          -0.09340574030846108,
          0.27766409394825686,
          0.13157042496380403,
          -0.8777022694640928,
          -0.9288324903688063,
          -0.9652828817183421,
          -0.8611408693417975,
          0.6863423187227322,
          0.3286917777049135,
          -0.6871923763120198,
          -0.775134524851623,
          0.7458327423270554,
          -0.20943758289375738,
          0.9127385378495676,
          0.5606066119110169,
          0.17004440117361286,
          0.8927635022103667,
          -0.8389268840254033,
          0.0658875875978456,
          0.5499689826129985,
          -0.3311683740513325,
          -0.12412142284059653,
          0.050705550097471755,
          -0.19633640703221067,
          0.685891219647834
        ],
        [
          0.04706025224903243,
          -0.8757719347940456,
          0.4178048651763602,
          -0.6859187328743312,
          -0.47437667704273556,
          -0.6711347652686921,
          -0.0013925098200826547,
          -0.3244454683206839,
          0.8090381283714554,
          -0.7954206075749986,
          0.6333049974556284,
          -0.23065471326836384,
          0.9707337796448546,
          -0.9623186325275821,
          0.18016736386632365,
          0.672719690729866,
          -0.25917406466900594,
          -0.5439276018604726,
          0.8165107383228994,
          -0.11235191464857695,
          -0.04962922989188896,
          0.15178889956266461,
          -0.8167495592132714,
          0.3773329981766909,
          0.3241648668133289,
          -0.7117712112639487,
          0.24189099009062032,
          -0.9604274337312573,
          -0.030467988661793878,
          0.749596324181026,
          -0.9767431623738831,
          -0.8508462096498848,
          0.3517808542037901,
          0.8418797360527752,
          0.6302990409055349,
          -0.15841068666325242,
          -0.9379659957538626,
          -0.13280506027051642,
          0.9902557897926103,
          0.016212863017356582,
          -0.43678073258748673,
          0.2794470434405216,
          -0.12103694717274527,
          -0.1501135331074237,
          0.9958397715939862,
          -0.6476518426038377,
          -0.2743773074296211,
          0.2275801713451989,
          0.23094198551862322,
          0.9447883620695068,
          -0.24295826692587622,
          0.9484279869581079,
          -0.18670994216039846,
          0.6481709617915777,
          0.026416250555817644,
          -0.36412236777373463,
          0.7686497350817105,
          0.5248514092781617,
          -1.0117242287601749,
          -0.0748323433378073,
          0.1009614321936931,
          0.490121643234059,
          0.6138516860998924,
          -0.5978919133661278,
          -0.8410595860935146,
          0.07730737434197188,
          -0.9381775461137043,
          0.28368462055041466,
          -0.5776104614611168,
          0.13467493757701082,
          0.8493627725710107,
          0.15899623967614573,
          -0.4710573232092564,
          0.6762286677801788,
          -0.3821922107286063
        ],
        [
          0.7296042260199074,
          -0.0580906435024982,
          -0.5908768379056514,
          0.19534076776670695,
          0.7609676400236427,
          -0.6942195056550893,
          -0.3816945210625272,
          -0.976546462314241,
          0.5324115128837263,
          -0.875817924355458,
          0.1711522411758541,
          -0.9984214405283576,
          0.24975918064338387,
          0.6549141987972825,
          0.03565973680535395,
          0.8415278460593782,
          0.4215147317970178,
          -0.22683760669563435,
          -0.39726321780207746,
          0.46582560959421626,
          1.021031701393029,
          0.33348082784564026,
          0.45622203875172435,
          -0.25104924038421306,
          0.15501517264048958,
          0.9266838018805945,
          0.5835684464878774,
          -0.7107989351575865,
          0.8820438581155896,
          -0.5473579938306523,
          -0.5922101986006192,
          0.17357196089366989,
          0.7304561189094998,
          -0.5273051319105817,
          0.5790574152129908,
          -0.2729553328632458,
          -0.5072263520869962,
          -0.5845755979256659,
          0.8029722721466888,
          0.06925682332895544,
          -0.8982306860338731,
          0.09215066191287975,
          0.5436279325775262,
          -0.28067937025357104,
          0.9866794652538156,
          0.9665600539318477,
          -0.39758587834978926,
          -0.5280943894085588,
          -0.7734263286012035,
          0.1708353873878341,
          -0.9450617501576761,
          -0.9723588608239709,
          -0.6537382587557543,
          0.564431140840481,
          0.7908794750013621,
          0.8161819245032419,
          0.02403413652681725,
          -0.7589020833330838,
          0.049455465420209066,
          -0.16356927085981673,
          0.9442298476158224,
          0.3561260128706576,
          -0.01780238312202118,
          0.7788441799664174,
          0.9905258621015749,
          -0.8734289675060523,
          -0.35015585855008413,
          -0.08669518907118415,
          0.581637502485704,
          -0.6388222165696962,
          -1.0129895795406056,
          -0.4501375393963803,
          0.6938816606837785,
          0.37287033359805966,
          0.2361620544457582
        ],
        [
          -0.34410277572119075,
          0.13570352849439926,
          -0.9889518830864437,
          0.1633611382368022,
          -0.6260879435209876,
          0.3399197613696243,
          0.7377123326119193,
          -0.570937154346816,
          -0.35113944404964315,
          0.9963158526573643,
          0.30102681308884405,
          0.10631554814113908,
          0.8834188250237105,
          -0.6751152402811096,
          -0.3389076230887009,
          -0.3801581744285678,
          -0.8897409792364059,
          -0.8049127983812367,
          0.09031392225975958,
          -0.2973279262820984,
          0.4516889709363592,
          -0.39935177580932857,
          0.04129974377029422,
          0.9897490837479337,
          -0.05877085695960478,
          -0.913864347975982,
          0.4227721935369922,
          0.8908869133647013,
          -0.10696121385266633,
          0.3824302338054028,
          0.6600158059994818,
          0.6316811396426173,
          0.5219722143659467,
          0.31744384373373746,
          0.4933836672339932,
          -0.375966036205146,
          -0.21640566512997578,
          0.2979244804066945,
          0.740978937645413,
          0.07142221779453503,
          0.5775284561333187,
          0.9712237145698581,
          -0.11935037297297324,
          -0.49552817234501223,
          0.32723701814489514,
          -0.24086038377868135,
          0.8586949740767844,
          -0.31738613052781695,
          0.5021189483268902,
          -0.12802767519352942,
          0.25416149538850075,
          -0.7351036231086775,
          -0.8131589092676588,
          0.31274220627805516,
          -0.944047360594849,
          0.5726046171469102,
          -0.20785897780211302,
          -0.4104134403253898,
          -0.4466718678596906,
          -0.914176359447779,
          0.0244771526816967,
          -0.9043780989338983,
          -0.3954052316676151,
          -0.8354589317341264,
          0.9639257798094765,
          -0.10633160640181583,
          -0.864114751703025,
          0.3234935880037442,
          -0.23196424207888094,
          0.9589741198995032,
          -0.2526917047730164,
          0.02832048521279544,
          -0.17284672433972303,
          -0.13880130944437585,
          0.032414158007086066
        ],
        [
          0.9146728307955816,
          -0.332813701898782,
          -0.5309636244651452,
          -0.41832131220580504,
          -0.7593554707951412,
          0.907271036786295,
          -0.3463398231068389,
          0.8321472578026898,
          0.8723212760251178,
          -0.9443499760318224,
          0.08183709925859714,
          0.016911261555771072,
          0.5615176724011919,
          -0.14141101528322242,
          0.023122252113583826,
          0.8026542016299749,
          -0.06733866765284935,
          -0.33802963739364966,
          0.8141679176635822,
          -0.1551441061815404,
          -0.9634918007735435,
          -0.9454475880249782,
          0.05942336945983273,
          0.42042779773146366,
          0.2625620522007339,
          0.8298688366518172,
          -0.21273680301156395,
          0.6327222906623753,
          -0.7289451542605012,
          0.329086936909442,
          -0.7613646267757894,
          0.6037239716383234,
          -1.0201118287965725,
          0.021767338730018793,
          0.5965539668833565,
          -0.7461315687318907,
          0.2879682392394473,
          -0.19719078898350473,
          -0.2334489261516377,
          0.11006163343612574,
          -0.3437208633358182,
          0.0010870277433058725,
          0.6819390972710293,
          -0.6584783352209916,
          0.18665540723064078,
          -0.8599635622387791,
          0.649524256874385,
          -0.4198738524751664,
          0.6787046220766354,
          0.952090937124991,
          -0.78214567623088,
          0.2735142703502085,
          -0.5889925940257303,
          -0.9692821364932949,
          -0.7461401294105019,
          0.9646241170087558,
          0.3442812346865498,
          -0.2566961604238127,
          0.5838251029268742,
          -0.5807800794739145,
          0.075112646364075,
          -0.7824696612139044,
          -0.6352357504763853,
          -0.28031205015392935,
          0.17141123374609438,
          0.6850559657883825,
          0.5982000864136829,
          0.6380004641952386,
          0.9586397873174035,
          -0.8757552041411931,
          0.08042665010560146,
          -0.6366091206921419,
          -0.5284345793409317,
          -0.15931890164099594,
          0.04283421575004365
        ],
        [
          0.9138097834590959,
          -0.12702064840448474,
          0.1753820971155462,
          0.12978950401852796,
          -0.048949891502821516,
          0.01461792144554673,
          0.8754383368962655,
          0.9697208322607498,
          0.2908152094795036,
          -0.36934153644609724,
          -0.40530580174385733,
          0.5134131958550531,
          0.8574234623214294,
          -0.9098405795010556,
          -0.4677564783314745,
          0.5212410978574631,
          0.7220653623006755,
          0.3976832242124505,
          0.2928165339071769,
          0.9367356245912966,
          0.055616352674052294,
          -0.048038168976050066,
          0.4453864925462835,
          -0.7218595976900299,
          -0.13541953185760475,
          0.6069285593933107,
          0.36393229526374515,
          0.5080781624464226,
          -0.27205155987055135,
          0.3752844893488195,
          0.9123028571954555,
          -0.32777822030745263,
          0.9263221958652199,
          -0.804793496771147,
          0.44654717714681186,
          0.06580090373134695,
          0.7262402774626135,
          -0.09026430738916429,
          0.3295802057719096,
          -0.7400612380933991,
          -0.30358779803537717,
          -0.8599821201887431,
          0.9727648579397496,
          -0.14098444971319424,
          0.638601608447602,
          0.07435575426180954,
          -0.1748660924078201,
          -0.949289956159149,
          -0.7136019488421392,
          -0.49523326125762723,
          -0.6043491655016485,
          -0.30161898544448595,
          -0.3066741910065537,
          0.1496710496261718,
          0.6659623695967927,
          0.479453433052497,
          -0.3729447555739229,
          0.2096543688521973,
          -0.9573254524221917,
          0.48001088264125424,
          0.7300289669836594,
          0.7897323656831712,
          -0.3052222196665939,
          0.9139619544894904,
          -0.988514989282455,
          0.06975814489896903,
          -0.3622400839762169,
          0.8173825804801559,
          -1.0219007883773725,
          0.6875505155862993,
          -0.3320994260393957,
          0.9269118601997991,
          -0.05085885614442054,
          0.0024049104166024016,
          0.765464217650139
        ],
        [
          -0.15338893959313316,
          0.43800682822827364,
          0.3117357528319941,
          -0.12537525388385795,
          0.6467737884818607,
          0.5661021927911408,
          1.0605006375017318,
          -0.3205172203978681,
          -0.6950613438294151,
          0.8812963646115843,
          -0.6584865949563032,
          0.9654803852824186,
          0.13486214727753332,
          -0.2563802810080422,
          0.09585069493711798,
          0.4909482102644078,
          0.40896913440135974,
          -0.4836262957902867,
          0.6984819919726415,
          0.9210475761651825,
          0.11976285475052073,
          -0.4311501162866973,
          -0.7274483762260318,
          0.17801162477499752,
          -0.929080498348936,
          0.4984915166624635,
          -0.2548348324642853,
          0.6307617612983814,
          0.21023485749424298,
          0.311590925135076,
          -0.23779480891884425,
          0.9935626588816375,
          0.557834123498138,
          -0.3261201098955606,
          0.8700789831233613,
          0.05914399697208461,
          -0.8107058613642062,
          0.09025783639623115,
          0.7363180038097803,
          0.9403411722854851,
          0.2959877312785322,
          0.00011053091401640527,
          -0.7366093691855835,
          -0.2987132854439044,
          0.22434966895851582,
          0.7594201049564293,
          -0.127676659529802,
          0.03947876490878244,
          1.003909625451254,
          -0.0543049070268994,
          0.7965742763321662,
          -0.6359008000517168,
          -0.6290470831787306,
          -0.6593258069282828,
          -0.6132113139848685,
          0.6608517301785506,
          0.05770306441096444,
          0.2192814235493188,
          -0.3180360867281771,
          -0.6986443806646032,
          0.9319091102051936,
          0.8463456155412339,
          -0.7858776666190268,
          -0.6162437636982934,
          0.4511660406371645,
          -0.1076392595517861,
          0.7607927218184689,
          -0.6735437083324172,
          0.5760643022692055,
          -0.19438159599152272,
          0.5800182441854957,
          -0.7629904224029342,
          -0.10985985231990547,
          0.6087941275000501,
          -0.3663808651582463
        ],
        [
          -0.6078104350439758,
          0.4264763708134618,
          -1.0298168247057895,
          -0.9012024370201943,
          0.5844505686810696,
          -0.6272798982026629,
          0.6396888982183713,
          0.22714308239578837,
          0.6139652158279703,
          0.9030511351588615,
          0.4169036647841753,
          -0.0022777287566461343,
          -0.46596854423580103,
          -0.9542359578816391,
          0.9059050580873051,
          -0.12369231660240074,
          -0.047911210670906035,
          -0.12472757091836292,
          0.7361321115422561,
          -0.05330907129997105,
          0.5065452938429083,
          0.8490168932785354,
          0.18997570438841072,
          -0.4960585939773887,
          -0.9153447090428655,
          0.7623891145146728,
          -0.17957624530832636,
          -0.6889256494655454,
          0.15739317659708396,
          0.05791396059738885,
          -0.4308066247071073,
          0.8451961725245853,
          -0.6268007140243868,
          0.9618327483465787,
          0.13045734642711837,
          -0.19674029286586947,
          -0.11986465085473741,
          0.45524667757424536,
          0.026251204352614632,
          -0.8350359546662833,
          0.27973409566301477,
          -0.9409258335354872,
          0.375541409622274,
          -0.16522692590891586,
          0.9589469084727691,
          0.7446224114142019,
          -0.780899762115463,
          0.2731281951685345,
          -0.23057071291355857,
          0.21481409359113973,
          0.5341140381159573,
          -0.907091212455887,
          -0.5732006330867181,
          0.7144093100262146,
          0.22367562976616595,
          0.05259436173516541,
          -0.798574980666193,
          0.044819307344056064,
          0.5647903057182307,
          -0.6652845999813048,
          0.36048094870355385,
          0.009447810547536406,
          -0.6211813906993501,
